net
{
     node_size = (0 0);
     name = "AirID_2009_new3";
     tree = "(Range,Azimuth,Elevation,Detected,TargetType,UHRR_Confusion,ModulationFrequency,RadarMode,CenterFrequency,PRI,PRF)";
     UnBBayes_Color_Probabilistic_Description = "-256";
     UnBBayes_Color_Probabilistic_Explanation = "-16711936";
     UnBBayes_Color_Utility = "-16711681";
     UnBBayes_Color_Decision = "-14336";
}

node Range
{
     label = "Range";
     position = (102 132);
     states = ("InRange");
}

node Azimuth
{
     label = "Azimuth";
     position = (168 48);
     states = ("Low");
}

node Elevation
{
     label = "Elevation";
     position = (306 126);
     states = ("InPlane");
}

node Detect
{
     label = "Detected";
     position = (120 240);
     states = ("Yes" "No");
}

node TargetType
{
     label = "TargetType";
     position = (498 78);
     states = ("Blue1" "Blue2" "Red1" "Red2" "Neutral" "Unknown");
}

node UHRR_Confusion
{
     label = "UHRR_Confusion";
     position = (102 408);
     states = ("Blue1" "Blue2" "Red1" "Red2" "Neutral" "Unknown");
}

node ModulationFrequency
{
     label = "ModulationFrequency";
     position = (294 450);
     states = ("100To110" "110To120" "120To130" "130To140" "140To150" "150To160" "160To170" "170To180" "180To190" "190To200");
}

node RadarMode
{
     label = "RadarMode";
     position = (714 108);
     states = ("Off" "VS" "TWS" "STT" "ID" "GMTI" "RBGM" "SAR" "Weather");
}

node CenterFrequency
{
     label = "CenterFrequency";
     position = (504 342);
     states = ("10To10.1" "10.1To10.2" "10.2To10.3" "10.3To10.4" "10.4To10.5" "10.5To10.6" "10.6To10.7" "10.7To10.8" "10.8To10.9" "10.9To11");
}

node PRI
{
     label = "PRI";
     position = (702 492);
     states = ("5To5.1" "5.1To5.2" "5.2To5.3" "5.3To5.4" "5.4To5.5" "5.5To5.6" "5.6To5.7" "5.7To5.8" "5.8To5.9" "5.9To6");
}

node PRF
{
     label = "PRF";
     position = (846 300);
     states = ("10To20" "20To30" "30To40" "40To50" "50To60" "60To70" "70To80" "80To90" "90To100");
}

potential (Range)
{
 data = ( 1.0 );
}

potential (Azimuth)
{
 data = ( 1.0 );
}

potential (Elevation)
{
 data = ( 1.0 );
}

potential (Detect | Range Azimuth Elevation)
{
 data = (((( 0.95 0.05 ))));
}

potential (TargetType)
{
 data = ( 0.2 0.2 0.2 0.2 0.1 0.1 );
}

potential (UHRR_Confusion | Elevation TargetType Detect)
{
 data = (((( 0.85 0.05 0.01 0.01 0.04 0.04 )
( 0.1666667 0.1666667 0.1666667 0.1666667 0.1666667 0.1666667 ))
(( 0.05 0.85 0.01 0.01 0.04 0.04 )
( 0.1666692 0.1666662 0.1666662 0.1666662 0.1666662 0.1666662 ))
(( 0.01 0.01 0.85 0.05 0.04 0.04 )
( 0.1666667 0.1666667 0.1666667 0.1666667 0.1666667 0.1666667 ))
(( 0.01 0.01 0.05 0.85 0.04 0.04 )
( 0.1666667 0.1666667 0.1666667 0.1666667 0.1666667 0.1666667 ))
(( 0.05 0.05 0.05 0.05 0.7 0.1 )
( 0.05 0.05 0.05 0.05 0.7 0.1 ))
(( 0.05 0.05 0.05 0.05 0.1 0.7 )
( 0.1666692 0.1666662 0.1666662 0.1666662 0.1666662 0.1666662 ))));
}

potential (ModulationFrequency | TargetType Detect)
{
 data = ((( 0.4 0.06666695 0.06666695 0.06666663 0.06666663 0.06666663 0.06666663 0.06666663 0.06666663 0.06666663 )
( 0.1 0.1 0.1 0.1 0.1 0.1 0.1 0.1 0.1 0.1 ))
(( 0.06666667 0.4 0.06666667 0.06666667 0.06666667 0.06666667 0.06666667 0.06666667 0.06666667 0.06666667 )
( 0.1 0.1 0.1 0.1 0.1 0.1 0.1 0.1 0.1 0.1 ))
(( 0.06666665 0.06666665 0.4 0.06666698 0.06666665 0.06666665 0.06666665 0.06666665 0.06666665 0.06666665 )
( 0.1 0.1 0.1 0.1 0.1 0.1 0.1 0.1 0.1 0.1 ))
(( 0.06666667 0.06666667 0.06666667 0.4 0.06666667 0.06666667 0.06666667 0.06666667 0.06666667 0.06666667 )
( 0.1 0.1 0.1 0.1 0.1 0.1 0.1 0.1 0.1 0.1 ))
(( 0.01324153 0.01324153 0.01324153 0.01324153 0.2627119 0.2627119 0.2627119 0.0529661 0.0529661 0.0529661 )
( 0.1 0.1 0.1 0.1 0.1 0.1 0.1 0.1 0.1 0.1 ))
(( 0.01404495 0.01404495 0.01404484 0.01404495 0.1573034 0.1573034 0.1573034 0.1573034 0.1573034 0.1573034 )
( 0.1 0.1 0.1 0.1 0.1 0.1 0.1 0.1 0.1 0.1 )));
}

potential (RadarMode | TargetType)
{
 data = (( 0.1 0.225 0.225 0.225 0.225 0.0 0.0 0.0 0.0 )
( 0.1 0.0 0.0 0.0 0.0 0.3 0.3 0.3 0.0 )
( 0.1 0.225 0.225 0.225 0.225 0.0 0.0 0.0 0.0 )
( 0.1 0.0 0.0 0.0 0.0 0.0 0.9 0.0 0.0 )
( 0.1111111 0.1111111 0.1111111 0.1111111 0.1111111 0.1111111 0.1111111 0.1111111 0.1111111 )
( 0.1111111 0.1111111 0.1111111 0.1111111 0.1111111 0.1111111 0.1111111 0.1111111 0.1111111 ));
}

potential (CenterFrequency | TargetType Detect RadarMode)
{
 data = (((( 0.1 0.1 0.1 0.1 0.1 0.1 0.1 0.1 0.1 0.1 )
( 0.3589744 0.1282051 0.06410257 0.06410257 0.06410257 0.06410257 0.06410257 0.06410257 0.06410257 0.06410257 )
( 0.3589744 0.1282051 0.06410257 0.06410257 0.06410257 0.06410257 0.06410257 0.06410257 0.06410257 0.06410257 )
( 0.3589744 0.1282051 0.06410257 0.06410257 0.06410257 0.06410257 0.06410257 0.06410257 0.06410257 0.06410257 )
( 0.3589733 0.1282053 0.06410264 0.06410264 0.06410264 0.06410264 0.06410264 0.06410264 0.06410298 0.06410264 )
( 0.3589744 0.1282051 0.06410257 0.06410257 0.06410257 0.06410257 0.06410257 0.06410257 0.06410257 0.06410257 )
( 0.3589744 0.1282051 0.06410257 0.06410257 0.06410257 0.06410257 0.06410257 0.06410257 0.06410257 0.06410257 )
( 0.3589744 0.1282051 0.06410257 0.06410257 0.06410257 0.06410257 0.06410257 0.06410257 0.06410257 0.06410257 )
( 0.0625 0.0625 0.25 0.25 0.0625 0.0625 0.0625 0.0625 0.0625 0.0625 ))
(( 0.1 0.1 0.1 0.1 0.1 0.1 0.1 0.1 0.1 0.1 )
( 0.1 0.1 0.1 0.1 0.1 0.1 0.1 0.1 0.1 0.1 )
( 0.1 0.1 0.1 0.1 0.1 0.1 0.1 0.1 0.1 0.1 )
( 0.1 0.1 0.1 0.1 0.1 0.1 0.1 0.1 0.1 0.1 )
( 0.1 0.1 0.1 0.1 0.1 0.1 0.1 0.1 0.1 0.1 )
( 0.1 0.1 0.1 0.1 0.1 0.1 0.1 0.1 0.1 0.1 )
( 0.1 0.1 0.1 0.1 0.1 0.1 0.1 0.1 0.1 0.1 )
( 0.1 0.1 0.1 0.1 0.1 0.1 0.1 0.1 0.1 0.1 )
( 0.1 0.1 0.1 0.1 0.1 0.1 0.1 0.1 0.1 0.1 )))
((( 0.3589744 0.1282051 0.06410257 0.06410257 0.06410257 0.06410257 0.06410257 0.06410257 0.06410257 0.06410257 )
( 0.3589744 0.1282051 0.06410257 0.06410257 0.06410257 0.06410257 0.06410257 0.06410257 0.06410257 0.06410257 )
( 0.3589744 0.1282051 0.06410257 0.06410257 0.06410257 0.06410257 0.06410257 0.06410257 0.06410257 0.06410257 )
( 0.3589744 0.1282051 0.06410257 0.06410257 0.06410257 0.06410257 0.06410257 0.06410257 0.06410257 0.06410257 )
( 0.3589744 0.1282051 0.06410257 0.06410257 0.06410257 0.06410257 0.06410257 0.06410257 0.06410257 0.06410257 )
( 0.3589744 0.1282051 0.06410257 0.06410257 0.06410257 0.06410257 0.06410257 0.06410257 0.06410257 0.06410257 )
( 0.3589744 0.1282051 0.06410257 0.06410257 0.06410257 0.06410257 0.06410257 0.06410257 0.06410257 0.06410257 )
( 0.3589744 0.1282051 0.06410257 0.06410257 0.06410257 0.06410257 0.06410257 0.06410257 0.06410257 0.06410257 )
( 0.0625 0.0625 0.25 0.25 0.0625 0.0625 0.0625 0.0625 0.0625 0.0625 ))
(( 0.1 0.1 0.1 0.1 0.1 0.1 0.1 0.1 0.1 0.1 )
( 0.1 0.1 0.1 0.1 0.1 0.1 0.1 0.1 0.1 0.1 )
( 0.1 0.1 0.1 0.1 0.1 0.1 0.1 0.1 0.1 0.1 )
( 0.1 0.1 0.1 0.1 0.1 0.1 0.1 0.1 0.1 0.1 )
( 0.1 0.1 0.1 0.1 0.1 0.1 0.1 0.1 0.1 0.1 )
( 0.1 0.1 0.1 0.1 0.1 0.1 0.1 0.1 0.1 0.1 )
( 0.1 0.1 0.1 0.1 0.1 0.1 0.1 0.1 0.1 0.1 )
( 0.1 0.1 0.1 0.1 0.1 0.1 0.1 0.1 0.1 0.1 )
( 0.1 0.1 0.1 0.1 0.1 0.1 0.1 0.1 0.1 0.1 )))
((( 0.1 0.1 0.1 0.1 0.1 0.1 0.1 0.1 0.1 0.1 )
( 0.0641029 0.06410252 0.06410252 0.06410252 0.06410252 0.06410252 0.06410297 0.06410252 0.128205 0.358974 )
( 0.06410257 0.06410257 0.06410257 0.06410257 0.06410257 0.06410257 0.06410257 0.06410257 0.1282051 0.3589744 )
( 0.06410257 0.06410257 0.06410257 0.06410257 0.06410257 0.06410257 0.06410257 0.06410257 0.1282051 0.3589744 )
( 0.06410257 0.06410257 0.06410257 0.06410257 0.06410257 0.06410257 0.06410257 0.06410257 0.1282051 0.3589744 )
( 0.06410257 0.06410257 0.06410257 0.06410257 0.06410257 0.06410257 0.06410257 0.06410257 0.1282051 0.3589744 )
( 0.06410255 0.06410255 0.06410255 0.06410255 0.06410255 0.06410293 0.06410255 0.06410255 0.1282051 0.3589742 )
( 0.06410257 0.06410257 0.06410257 0.06410257 0.06410257 0.06410257 0.06410257 0.06410257 0.1282051 0.3589744 )
( 0.0625 0.0625 0.0625 0.0625 0.0625 0.0625 0.25 0.25 0.0625 0.0625 ))
(( 0.1 0.1 0.1 0.1 0.1 0.1 0.1 0.1 0.1 0.1 )
( 0.1 0.1 0.1 0.1 0.1 0.1 0.1 0.1 0.1 0.1 )
( 0.1 0.1 0.1 0.1 0.1 0.1 0.1 0.1 0.1 0.1 )
( 0.1 0.1 0.1 0.1 0.1 0.1 0.1 0.1 0.1 0.1 )
( 0.1 0.1 0.1 0.1 0.1 0.1 0.1 0.1 0.1 0.1 )
( 0.1 0.1 0.1 0.1 0.1 0.1 0.1 0.1 0.1 0.1 )
( 0.1 0.1 0.1 0.1 0.1 0.1 0.1 0.1 0.1 0.1 )
( 0.1 0.1 0.1 0.1 0.1 0.1 0.1 0.1 0.1 0.1 )
( 0.1 0.1 0.1 0.1 0.1 0.1 0.1 0.1 0.1 0.1 )))
((( 0.1 0.1 0.1 0.1 0.1 0.1 0.1 0.1 0.1 0.1 )
( 0.06410292 0.06410256 0.06410256 0.06410256 0.06410256 0.06410256 0.06410256 0.06410256 0.1282049 0.3589742 )
( 0.06410258 0.06410258 0.06410258 0.06410258 0.06410258 0.06410258 0.06410258 0.06410258 0.128205 0.3589743 )
( 0.06410256 0.06410256 0.06410256 0.06410256 0.06410256 0.06410292 0.06410256 0.06410256 0.1282049 0.3589742 )
( 0.06410258 0.06410258 0.06410258 0.06410258 0.06410258 0.06410258 0.06410258 0.06410258 0.128205 0.3589743 )
( 0.06410258 0.06410258 0.06410258 0.06410258 0.06410258 0.06410258 0.06410258 0.06410258 0.128205 0.3589743 )
( 0.06410256 0.06410256 0.06410256 0.06410256 0.06410256 0.06410292 0.06410256 0.06410256 0.1282049 0.3589742 )
( 0.06410258 0.06410258 0.06410258 0.06410258 0.06410258 0.06410258 0.06410258 0.06410258 0.128205 0.3589743 )
( 0.0625 0.0625 0.0625 0.0625 0.0625 0.0625 0.25 0.25 0.0625 0.0625 ))
(( 0.1 0.1 0.1 0.1 0.1 0.1 0.1 0.1 0.1 0.1 )
( 0.1 0.1 0.1 0.1 0.1 0.1 0.1 0.1 0.1 0.1 )
( 0.1 0.1 0.1 0.1 0.1 0.1 0.1 0.1 0.1 0.1 )
( 0.1 0.1 0.1 0.1 0.1 0.1 0.1 0.1 0.1 0.1 )
( 0.1 0.1 0.1 0.1 0.1 0.1 0.1 0.1 0.1 0.1 )
( 0.1 0.1 0.1 0.1 0.1 0.1 0.1 0.1 0.1 0.1 )
( 0.1 0.1 0.1 0.1 0.1 0.1 0.1 0.1 0.1 0.1 )
( 0.1 0.1 0.1 0.1 0.1 0.1 0.1 0.1 0.1 0.1 )
( 0.1 0.1 0.1 0.1 0.1 0.1 0.1 0.1 0.1 0.1 )))
((( 0.1 0.1 0.1 0.1 0.1 0.1 0.1 0.1 0.1 0.1 )
( 0.03571431 0.03571431 0.07142863 0.07142863 0.2857141 0.2857141 0.07142863 0.07142863 0.03571431 0.03571431 )
( 0.03571431 0.03571431 0.07142863 0.07142863 0.2857141 0.2857141 0.07142863 0.07142863 0.03571431 0.03571431 )
( 0.03571431 0.03571431 0.07142863 0.07142863 0.2857141 0.2857141 0.07142863 0.07142863 0.03571431 0.03571431 )
( 0.03571431 0.03571431 0.07142863 0.07142863 0.2857141 0.2857141 0.07142863 0.07142863 0.03571431 0.03571431 )
( 0.03571431 0.03571431 0.07142863 0.07142863 0.2857141 0.2857141 0.07142863 0.07142863 0.03571431 0.03571431 )
( 0.03571431 0.03571431 0.07142863 0.07142863 0.2857141 0.2857141 0.07142863 0.07142863 0.03571431 0.03571431 )
( 0.03571431 0.03571431 0.07142863 0.07142863 0.2857141 0.2857141 0.07142863 0.07142863 0.03571431 0.03571431 )
( 0.03571431 0.03571431 0.07142863 0.07142863 0.2857141 0.2857141 0.07142863 0.07142863 0.03571431 0.03571431 ))
(( 0.1 0.1 0.1 0.1 0.1 0.1 0.1 0.1 0.1 0.1 )
( 0.1 0.1 0.1 0.1 0.1 0.1 0.1 0.1 0.1 0.1 )
( 0.1 0.1 0.1 0.1 0.1 0.1 0.1 0.1 0.1 0.1 )
( 0.1 0.1 0.1 0.1 0.1 0.1 0.1 0.1 0.1 0.1 )
( 0.1 0.1 0.1 0.1 0.1 0.1 0.1 0.1 0.1 0.1 )
( 0.1 0.1 0.1 0.1 0.1 0.1 0.1 0.1 0.1 0.1 )
( 0.1 0.1 0.1 0.1 0.1 0.1 0.1 0.1 0.1 0.1 )
( 0.1 0.1 0.1 0.1 0.1 0.1 0.1 0.1 0.1 0.1 )
( 0.1 0.1 0.1 0.1 0.1 0.1 0.1 0.1 0.1 0.1 )))
((( 0.1 0.1 0.1 0.1 0.1 0.1 0.1 0.1 0.1 0.1 )
( 0.03571429 0.03571429 0.07142857 0.07142857 0.2857143 0.2857143 0.07142857 0.07142857 0.03571429 0.03571429 )
( 0.03571429 0.03571429 0.07142857 0.07142857 0.2857143 0.2857143 0.07142857 0.07142857 0.03571429 0.03571429 )
( 0.03571429 0.03571429 0.07142857 0.07142857 0.2857143 0.2857143 0.07142857 0.07142857 0.03571429 0.03571429 )
( 0.03571429 0.03571429 0.07142857 0.07142857 0.2857143 0.2857143 0.07142857 0.07142857 0.03571429 0.03571429 )
( 0.03571429 0.03571429 0.07142857 0.07142857 0.2857143 0.2857143 0.07142857 0.07142857 0.03571429 0.03571429 )
( 0.03571429 0.03571429 0.07142857 0.07142857 0.2857143 0.2857143 0.07142857 0.07142857 0.03571429 0.03571429 )
( 0.03571429 0.03571429 0.07142857 0.07142857 0.2857143 0.2857143 0.07142857 0.07142857 0.03571429 0.03571429 )
( 0.03571429 0.03571429 0.07142857 0.07142857 0.2857143 0.2857143 0.07142857 0.07142857 0.03571429 0.03571429 ))
(( 0.1 0.1 0.1 0.1 0.1 0.1 0.1 0.1 0.1 0.1 )
( 0.1 0.1 0.1 0.1 0.1 0.1 0.1 0.1 0.1 0.1 )
( 0.1 0.1 0.1 0.1 0.1 0.1 0.1 0.1 0.1 0.1 )
( 0.1 0.1 0.1 0.1 0.1 0.1 0.1 0.1 0.1 0.1 )
( 0.1 0.1 0.1 0.1 0.1 0.1 0.1 0.1 0.1 0.1 )
( 0.1 0.1 0.1 0.1 0.1 0.1 0.1 0.1 0.1 0.1 )
( 0.1 0.1 0.1 0.1 0.1 0.1 0.1 0.1 0.1 0.1 )
( 0.1 0.1 0.1 0.1 0.1 0.1 0.1 0.1 0.1 0.1 )
( 0.1 0.1 0.1 0.1 0.1 0.1 0.1 0.1 0.1 0.1 ))));
}

potential (PRI | TargetType Detect RadarMode)
{
 data = (((( 0.1 0.1 0.1 0.1 0.1 0.1 0.1 0.1 0.1 0.1 )
( 0.3478261 0.1630435 0.1086956 0.05434782 0.05434782 0.05434782 0.05434782 0.05434782 0.05434782 0.05434782 )
( 0.3478261 0.1630435 0.1086956 0.05434782 0.05434782 0.05434782 0.05434782 0.05434782 0.05434782 0.05434782 )
( 0.3478261 0.1630435 0.1086956 0.05434782 0.05434782 0.05434782 0.05434782 0.05434782 0.05434782 0.05434782 )
( 0.3478261 0.1630435 0.1086956 0.05434782 0.05434782 0.05434782 0.05434782 0.05434782 0.05434782 0.05434782 )
( 0.3478261 0.1630435 0.1086956 0.05434782 0.05434782 0.05434782 0.05434782 0.05434782 0.05434782 0.05434782 )
( 0.3478261 0.1630435 0.1086956 0.05434782 0.05434782 0.05434782 0.05434782 0.05434782 0.05434782 0.05434782 )
( 0.3478261 0.1630435 0.1086956 0.05434782 0.05434782 0.05434782 0.05434782 0.05434782 0.05434782 0.05434782 )
( 0.0625 0.0625 0.25 0.25 0.0625 0.0625 0.0625 0.0625 0.0625 0.0625 ))
(( 0.1 0.1 0.1 0.1 0.1 0.1 0.1 0.1 0.1 0.1 )
( 0.1 0.1 0.1 0.1 0.1 0.1 0.1 0.1 0.1 0.1 )
( 0.1 0.1 0.1 0.1 0.1 0.1 0.1 0.1 0.1 0.1 )
( 0.1 0.1 0.1 0.1 0.1 0.1 0.1 0.1 0.1 0.1 )
( 0.1 0.1 0.1 0.1 0.1 0.1 0.1 0.1 0.1 0.1 )
( 0.1 0.1 0.1 0.1 0.1 0.1 0.1 0.1 0.1 0.1 )
( 0.1 0.1 0.1 0.1 0.1 0.1 0.1 0.1 0.1 0.1 )
( 0.1 0.1 0.1 0.1 0.1 0.1 0.1 0.1 0.1 0.1 )
( 0.1 0.1 0.1 0.1 0.1 0.1 0.1 0.1 0.1 0.1 )))
((( 0.1 0.1 0.1 0.1 0.1 0.1 0.1 0.1 0.1 0.1 )
( 0.3478261 0.1630435 0.1086956 0.05434782 0.05434782 0.05434782 0.05434782 0.05434782 0.05434782 0.05434782 )
( 0.3478261 0.1630435 0.1086956 0.05434782 0.05434782 0.05434782 0.05434782 0.05434782 0.05434782 0.05434782 )
( 0.3478261 0.1630435 0.1086956 0.05434782 0.05434782 0.05434782 0.05434782 0.05434782 0.05434782 0.05434782 )
( 0.3478261 0.1630435 0.1086956 0.05434782 0.05434782 0.05434782 0.05434782 0.05434782 0.05434782 0.05434782 )
( 0.3478261 0.1630435 0.1086956 0.05434782 0.05434782 0.05434782 0.05434782 0.05434782 0.05434782 0.05434782 )
( 0.3478261 0.1630435 0.1086956 0.05434782 0.05434782 0.05434782 0.05434782 0.05434782 0.05434782 0.05434782 )
( 0.3478261 0.1630435 0.1086956 0.05434782 0.05434782 0.05434782 0.05434782 0.05434782 0.05434782 0.05434782 )
( 0.0625 0.0625 0.25 0.25 0.0625 0.0625 0.0625 0.0625 0.0625 0.0625 ))
(( 0.1 0.1 0.1 0.1 0.1 0.1 0.1 0.1 0.1 0.1 )
( 0.1 0.1 0.1 0.1 0.1 0.1 0.1 0.1 0.1 0.1 )
( 0.1 0.1 0.1 0.1 0.1 0.1 0.1 0.1 0.1 0.1 )
( 0.1 0.1 0.1 0.1 0.1 0.1 0.1 0.1 0.1 0.1 )
( 0.1 0.1 0.1 0.1 0.1 0.1 0.1 0.1 0.1 0.1 )
( 0.1 0.1 0.1 0.1 0.1 0.1 0.1 0.1 0.1 0.1 )
( 0.1 0.1 0.1 0.1 0.1 0.1 0.1 0.1 0.1 0.1 )
( 0.1 0.1 0.1 0.1 0.1 0.1 0.1 0.1 0.1 0.1 )
( 0.1 0.1 0.1 0.1 0.1 0.1 0.1 0.1 0.1 0.1 )))
((( 0.1 0.1 0.1 0.1 0.1 0.1 0.1 0.1 0.1 0.1 )
( 0.05434782 0.05434782 0.05434782 0.05434782 0.05434782 0.05434782 0.05434782 0.1086956 0.1630435 0.3478261 )
( 0.05434782 0.05434782 0.05434782 0.05434782 0.05434782 0.05434782 0.05434782 0.1086956 0.1630435 0.3478261 )
( 0.05434782 0.05434782 0.05434782 0.05434782 0.05434782 0.05434782 0.05434782 0.1086956 0.1630435 0.3478261 )
( 0.05434782 0.05434782 0.05434782 0.05434782 0.05434782 0.05434782 0.05434782 0.1086956 0.1630435 0.3478261 )
( 0.05434782 0.05434782 0.05434782 0.05434782 0.05434782 0.05434782 0.05434782 0.1086956 0.1630435 0.3478261 )
( 0.05434782 0.05434782 0.05434782 0.05434782 0.05434782 0.05434782 0.05434782 0.1086956 0.1630435 0.3478261 )
( 0.05434782 0.05434782 0.05434782 0.05434782 0.05434782 0.05434782 0.05434782 0.1086956 0.1630435 0.3478261 )
( 0.0625 0.0625 0.0625 0.0625 0.0625 0.0625 0.25 0.25 0.0625 0.0625 ))
(( 0.1 0.1 0.1 0.1 0.1 0.1 0.1 0.1 0.1 0.1 )
( 0.1 0.1 0.1 0.1 0.1 0.1 0.1 0.1 0.1 0.1 )
( 0.1 0.1 0.1 0.1 0.1 0.1 0.1 0.1 0.1 0.1 )
( 0.1 0.1 0.1 0.1 0.1 0.1 0.1 0.1 0.1 0.1 )
( 0.1 0.1 0.1 0.1 0.1 0.1 0.1 0.1 0.1 0.1 )
( 0.1 0.1 0.1 0.1 0.1 0.1 0.1 0.1 0.1 0.1 )
( 0.1 0.1 0.1 0.1 0.1 0.1 0.1 0.1 0.1 0.1 )
( 0.1 0.1 0.1 0.1 0.1 0.1 0.1 0.1 0.1 0.1 )
( 0.1 0.1 0.1 0.1 0.1 0.1 0.1 0.1 0.1 0.1 )))
((( 0.1 0.1 0.1 0.1 0.1 0.1 0.1 0.1 0.1 0.1 )
( 0.05434782 0.05434782 0.05434782 0.05434782 0.05434782 0.05434782 0.05434782 0.1086956 0.1630435 0.3478261 )
( 0.05434782 0.05434782 0.05434782 0.05434782 0.05434782 0.05434782 0.05434782 0.1086956 0.1630435 0.3478261 )
( 0.05434782 0.05434782 0.05434782 0.05434782 0.05434782 0.05434782 0.05434782 0.1086956 0.1630435 0.3478261 )
( 0.05434782 0.05434782 0.05434782 0.05434782 0.05434782 0.05434782 0.05434782 0.1086956 0.1630435 0.3478261 )
( 0.05434782 0.05434782 0.05434782 0.05434782 0.05434782 0.05434782 0.05434782 0.1086956 0.1630435 0.3478261 )
( 0.05434782 0.05434782 0.05434782 0.05434782 0.05434782 0.05434782 0.05434782 0.1086956 0.1630435 0.3478261 )
( 0.05434782 0.05434782 0.05434782 0.05434782 0.05434782 0.05434782 0.05434782 0.1086956 0.1630435 0.3478261 )
( 0.0625 0.0625 0.0625 0.0625 0.0625 0.0625 0.25 0.25 0.0625 0.0625 ))
(( 0.1 0.1 0.1 0.1 0.1 0.1 0.1 0.1 0.1 0.1 )
( 0.1 0.1 0.1 0.1 0.1 0.1 0.1 0.1 0.1 0.1 )
( 0.1 0.1 0.1 0.1 0.1 0.1 0.1 0.1 0.1 0.1 )
( 0.1 0.1 0.1 0.1 0.1 0.1 0.1 0.1 0.1 0.1 )
( 0.1 0.1 0.1 0.1 0.1 0.1 0.1 0.1 0.1 0.1 )
( 0.1 0.1 0.1 0.1 0.1 0.1 0.1 0.1 0.1 0.1 )
( 0.1 0.1 0.1 0.1 0.1 0.1 0.1 0.1 0.1 0.1 )
( 0.1 0.1 0.1 0.1 0.1 0.1 0.1 0.1 0.1 0.1 )
( 0.1 0.1 0.1 0.1 0.1 0.1 0.1 0.1 0.1 0.1 )))
((( 0.1 0.1 0.1 0.1 0.1 0.1 0.1 0.1 0.1 0.1 )
( 0.01854599 0.01854599 0.07418398 0.07418398 0.3145401 0.3145401 0.07418398 0.07418398 0.01854599 0.01854599 )
( 0.01854598 0.01854598 0.0741839 0.0741839 0.3145402 0.3145402 0.0741839 0.0741839 0.01854598 0.01854598 )
( 0.01854599 0.01854599 0.07418398 0.07418398 0.3145401 0.3145401 0.07418398 0.07418398 0.01854599 0.01854599 )
( 0.01854599 0.01854599 0.07418398 0.07418398 0.3145401 0.3145401 0.07418398 0.07418398 0.01854599 0.01854599 )
( 0.01854599 0.01854599 0.07418398 0.07418398 0.3145401 0.3145401 0.07418398 0.07418398 0.01854599 0.01854599 )
( 0.01854599 0.01854599 0.07418398 0.07418398 0.3145401 0.3145401 0.07418398 0.07418398 0.01854599 0.01854599 )
( 0.01854599 0.01854599 0.07418398 0.07418398 0.3145401 0.3145401 0.07418398 0.07418398 0.01854599 0.01854599 )
( 0.01854599 0.01854599 0.07418398 0.07418398 0.3145401 0.3145401 0.07418398 0.07418398 0.01854599 0.01854599 ))
(( 0.1 0.1 0.1 0.1 0.1 0.1 0.1 0.1 0.1 0.1 )
( 0.1 0.1 0.1 0.1 0.1 0.1 0.1 0.1 0.1 0.1 )
( 0.1 0.1 0.1 0.1 0.1 0.1 0.1 0.1 0.1 0.1 )
( 0.1 0.1 0.1 0.1 0.1 0.1 0.1 0.1 0.1 0.1 )
( 0.1 0.1 0.1 0.1 0.1 0.1 0.1 0.1 0.1 0.1 )
( 0.1 0.1 0.1 0.1 0.1 0.1 0.1 0.1 0.1 0.1 )
( 0.1 0.1 0.1 0.1 0.1 0.1 0.1 0.1 0.1 0.1 )
( 0.1 0.1 0.1 0.1 0.1 0.1 0.1 0.1 0.1 0.1 )
( 0.1 0.1 0.1 0.1 0.1 0.1 0.1 0.1 0.1 0.1 )))
((( 0.1 0.1 0.1 0.1 0.1 0.1 0.1 0.1 0.1 0.1 )
( 0.01854599 0.01854599 0.07418398 0.07418398 0.3145401 0.3145401 0.07418398 0.07418398 0.01854599 0.01854599 )
( 0.01854599 0.01854599 0.07418398 0.07418398 0.3145401 0.3145401 0.07418398 0.07418398 0.01854599 0.01854599 )
( 0.01854599 0.01854599 0.07418398 0.07418398 0.3145401 0.3145401 0.07418398 0.07418398 0.01854599 0.01854599 )
( 0.01854599 0.01854599 0.07418398 0.07418398 0.3145401 0.3145401 0.07418398 0.07418398 0.01854599 0.01854599 )
( 0.01854599 0.01854599 0.07418398 0.07418398 0.3145401 0.3145401 0.07418398 0.07418398 0.01854599 0.01854599 )
( 0.01854599 0.01854599 0.07418398 0.07418398 0.3145401 0.3145401 0.07418398 0.07418398 0.01854599 0.01854599 )
( 0.01854599 0.01854599 0.07418398 0.07418398 0.3145401 0.3145401 0.07418398 0.07418398 0.01854599 0.01854599 )
( 0.01854599 0.01854599 0.07418398 0.07418398 0.3145401 0.3145401 0.07418398 0.07418398 0.01854599 0.01854599 ))
(( 0.1 0.1 0.1 0.1 0.1 0.1 0.1 0.1 0.1 0.1 )
( 0.1 0.1 0.1 0.1 0.1 0.1 0.1 0.1 0.1 0.1 )
( 0.1 0.1 0.1 0.1 0.1 0.1 0.1 0.1 0.1 0.1 )
( 0.1 0.1 0.1 0.1 0.1 0.1 0.1 0.1 0.1 0.1 )
( 0.1 0.1 0.1 0.1 0.1 0.1 0.1 0.1 0.1 0.1 )
( 0.1 0.1 0.1 0.1 0.1 0.1 0.1 0.1 0.1 0.1 )
( 0.1 0.1 0.1 0.1 0.1 0.1 0.1 0.1 0.1 0.1 )
( 0.1 0.1 0.1 0.1 0.1 0.1 0.1 0.1 0.1 0.1 )
( 0.1 0.1 0.1 0.1 0.1 0.1 0.1 0.1 0.1 0.1 ))));
}

potential (PRF | TargetType Detect RadarMode)
{
 data = (((( 0.1111101 0.1111112 0.1111112 0.1111112 0.1111112 0.1111112 0.1111112 0.1111112 0.1111112 )
( 0.3526073 0.1755943 0.1170628 0.05912259 0.05912259 0.05912259 0.05912259 0.05912259 0.05912259 )
( 0.3526075 0.1755941 0.117063 0.05912257 0.05912257 0.05912257 0.05912257 0.05912257 0.05912257 )
( 0.3526065 0.1755944 0.1170632 0.05912266 0.05912266 0.05912266 0.05912266 0.05912266 0.05912266 )
( 0.3526065 0.1755943 0.1170632 0.05912266 0.05912266 0.05912266 0.05912266 0.05912266 0.05912266 )
( 0.3526075 0.1755941 0.117063 0.05912257 0.05912257 0.05912257 0.05912257 0.05912257 0.05912257 )
( 0.3526075 0.1755941 0.117063 0.05912257 0.05912257 0.05912257 0.05912257 0.05912257 0.05912257 )
( 0.3526075 0.1755941 0.117063 0.05912257 0.05912257 0.05912257 0.05912257 0.05912257 0.05912257 )
( 0.05952381 0.05952381 0.05952381 0.2142857 0.2142857 0.2142857 0.05952381 0.05952381 0.05952381 ))
(( 0.1111112 0.1111112 0.1111112 0.1111112 0.1111112 0.1111101 0.1111112 0.1111112 0.1111112 )
( 0.1111111 0.1111111 0.1111111 0.1111111 0.1111111 0.1111111 0.1111111 0.1111111 0.1111111 )
( 0.1111111 0.1111111 0.1111111 0.1111111 0.1111111 0.1111111 0.1111111 0.1111111 0.1111111 )
( 0.1111111 0.1111111 0.1111111 0.1111111 0.1111111 0.1111111 0.1111111 0.1111111 0.1111111 )
( 0.1111111 0.1111111 0.1111111 0.1111111 0.1111111 0.1111111 0.1111111 0.1111111 0.1111111 )
( 0.1111111 0.1111111 0.1111111 0.1111111 0.1111111 0.1111111 0.1111111 0.1111111 0.1111111 )
( 0.1111111 0.1111111 0.1111111 0.1111111 0.1111111 0.1111111 0.1111111 0.1111111 0.1111111 )
( 0.1111111 0.1111111 0.1111111 0.1111111 0.1111111 0.1111111 0.1111111 0.1111111 0.1111111 )
( 0.1111111 0.1111111 0.1111111 0.1111111 0.1111111 0.1111111 0.1111111 0.1111111 0.1111111 )))
((( 0.1111102 0.1111112 0.1111112 0.1111112 0.1111112 0.1111112 0.1111112 0.1111112 0.1111112 )
( 0.3526075 0.1755941 0.117063 0.05912257 0.05912257 0.05912257 0.05912257 0.05912257 0.05912257 )
( 0.3526075 0.1755941 0.117063 0.05912257 0.05912257 0.05912257 0.05912257 0.05912257 0.05912257 )
( 0.3526064 0.1755943 0.1170635 0.05912262 0.05912262 0.05912262 0.05912262 0.05912262 0.05912262 )
( 0.3526075 0.1755941 0.117063 0.05912257 0.05912257 0.05912257 0.05912257 0.05912257 0.05912257 )
( 0.3526075 0.1755941 0.117063 0.05912257 0.05912257 0.05912257 0.05912257 0.05912257 0.05912257 )
( 0.3526075 0.1755941 0.117063 0.05912257 0.05912257 0.05912257 0.05912257 0.05912257 0.05912257 )
( 0.3526075 0.1755941 0.117063 0.05912257 0.05912257 0.05912257 0.05912257 0.05912257 0.05912257 )
( 0.05952381 0.05952381 0.05952381 0.2142857 0.2142857 0.2142857 0.05952381 0.05952381 0.05952381 ))
(( 0.1111111 0.1111111 0.1111111 0.1111111 0.1111111 0.1111111 0.1111111 0.1111111 0.1111111 )
( 0.1111111 0.1111111 0.1111111 0.1111111 0.1111111 0.1111111 0.1111111 0.1111111 0.1111111 )
( 0.1111111 0.1111111 0.1111111 0.1111111 0.1111111 0.1111111 0.1111111 0.1111111 0.1111111 )
( 0.1111111 0.1111111 0.1111111 0.1111111 0.1111111 0.1111111 0.1111111 0.1111111 0.1111111 )
( 0.1111111 0.1111111 0.1111111 0.1111111 0.1111111 0.1111111 0.1111111 0.1111111 0.1111111 )
( 0.1111111 0.1111111 0.1111111 0.1111111 0.1111111 0.1111111 0.1111111 0.1111111 0.1111111 )
( 0.1111111 0.1111111 0.1111111 0.1111111 0.1111111 0.1111111 0.1111111 0.1111111 0.1111111 )
( 0.1111111 0.1111111 0.1111111 0.1111111 0.1111111 0.1111111 0.1111111 0.1111111 0.1111111 )
( 0.1111111 0.1111111 0.1111111 0.1111111 0.1111111 0.1111111 0.1111111 0.1111111 0.1111111 )))
((( 0.1111111 0.1111111 0.1111111 0.1111111 0.1111111 0.1111111 0.1111111 0.1111111 0.1111111 )
( 0.05912259 0.05912259 0.05912259 0.05912259 0.05912259 0.05912259 0.1170628 0.1755943 0.3526073 )
( 0.05912257 0.05912257 0.05912257 0.05912257 0.05912257 0.05912257 0.117063 0.1755941 0.3526075 )
( 0.05912257 0.05912257 0.05912257 0.05912257 0.05912257 0.05912257 0.117063 0.1755941 0.3526075 )
( 0.05912257 0.05912257 0.05912257 0.05912257 0.05912257 0.05912257 0.117063 0.1755941 0.3526075 )
( 0.05912257 0.05912257 0.05912257 0.05912257 0.05912257 0.05912257 0.117063 0.1755941 0.3526075 )
( 0.05912257 0.05912257 0.05912257 0.05912257 0.05912257 0.05912257 0.117063 0.1755941 0.3526075 )
( 0.05912257 0.05912257 0.05912257 0.05912257 0.05912257 0.05912257 0.117063 0.1755941 0.3526075 )
( 0.05952381 0.05952381 0.05952381 0.2142857 0.2142857 0.2142857 0.05952381 0.05952381 0.05952381 ))
(( 0.1111111 0.1111111 0.1111111 0.1111111 0.1111111 0.1111111 0.1111111 0.1111111 0.1111111 )
( 0.1111111 0.1111111 0.1111111 0.1111111 0.1111111 0.1111111 0.1111111 0.1111111 0.1111111 )
( 0.1111111 0.1111111 0.1111111 0.1111111 0.1111111 0.1111111 0.1111111 0.1111111 0.1111111 )
( 0.1111111 0.1111111 0.1111111 0.1111111 0.1111111 0.1111111 0.1111111 0.1111111 0.1111111 )
( 0.1111111 0.1111111 0.1111111 0.1111111 0.1111111 0.1111111 0.1111111 0.1111111 0.1111111 )
( 0.1111111 0.1111111 0.1111111 0.1111111 0.1111111 0.1111111 0.1111111 0.1111111 0.1111111 )
( 0.1111111 0.1111111 0.1111111 0.1111111 0.1111111 0.1111111 0.1111111 0.1111111 0.1111111 )
( 0.1111111 0.1111111 0.1111111 0.1111111 0.1111111 0.1111111 0.1111111 0.1111111 0.1111111 )
( 0.1111111 0.1111111 0.1111111 0.1111111 0.1111111 0.1111111 0.1111111 0.1111111 0.1111111 )))
((( 0.1111111 0.1111111 0.1111111 0.1111111 0.1111111 0.1111111 0.1111111 0.1111111 0.1111111 )
( 0.05912257 0.05912257 0.05912257 0.05912257 0.05912257 0.05912257 0.117063 0.1755941 0.3526075 )
( 0.05912257 0.05912257 0.05912257 0.05912257 0.05912257 0.05912257 0.117063 0.1755941 0.3526075 )
( 0.05912257 0.05912257 0.05912257 0.05912257 0.05912257 0.05912257 0.117063 0.1755941 0.3526075 )
( 0.05912257 0.05912257 0.05912257 0.05912257 0.05912257 0.05912257 0.117063 0.1755941 0.3526075 )
( 0.05912257 0.05912257 0.05912257 0.05912257 0.05912257 0.05912257 0.117063 0.1755941 0.3526075 )
( 0.05912257 0.05912257 0.05912257 0.05912257 0.05912257 0.05912257 0.117063 0.1755941 0.3526075 )
( 0.05912257 0.05912257 0.05912257 0.05912257 0.05912257 0.05912257 0.117063 0.1755941 0.3526075 )
( 0.05952381 0.05952381 0.05952381 0.2142857 0.2142857 0.2142857 0.05952381 0.05952381 0.05952381 ))
(( 0.1111111 0.1111111 0.1111111 0.1111111 0.1111111 0.1111111 0.1111111 0.1111111 0.1111111 )
( 0.1111111 0.1111111 0.1111111 0.1111111 0.1111111 0.1111111 0.1111111 0.1111111 0.1111111 )
( 0.1111111 0.1111111 0.1111111 0.1111111 0.1111111 0.1111111 0.1111111 0.1111111 0.1111111 )
( 0.1111111 0.1111111 0.1111111 0.1111111 0.1111111 0.1111111 0.1111111 0.1111111 0.1111111 )
( 0.1111111 0.1111111 0.1111111 0.1111111 0.1111111 0.1111111 0.1111111 0.1111111 0.1111111 )
( 0.1111111 0.1111111 0.1111111 0.1111111 0.1111111 0.1111111 0.1111111 0.1111111 0.1111111 )
( 0.1111111 0.1111111 0.1111111 0.1111111 0.1111111 0.1111111 0.1111111 0.1111111 0.1111111 )
( 0.1111111 0.1111111 0.1111111 0.1111111 0.1111111 0.1111111 0.1111111 0.1111111 0.1111111 )
( 0.1111111 0.1111111 0.1111111 0.1111111 0.1111111 0.1111111 0.1111111 0.1111111 0.1111111 )))
((( 0.1111111 0.1111111 0.1111111 0.1111111 0.1111111 0.1111111 0.1111111 0.1111111 0.1111111 )
( 0.02100836 0.02100836 0.07563007 0.1848742 0.394958 0.1848742 0.07563007 0.02100836 0.02100836 )
( 0.0210084 0.0210084 0.07563025 0.184874 0.394958 0.184874 0.07563025 0.0210084 0.0210084 )
( 0.0210084 0.0210084 0.07563025 0.184874 0.394958 0.184874 0.07563025 0.0210084 0.0210084 )
( 0.0210084 0.0210084 0.07563025 0.184874 0.394958 0.184874 0.07563025 0.0210084 0.0210084 )
( 0.02100836 0.02100836 0.07563007 0.1848742 0.394958 0.1848742 0.07563007 0.02100836 0.02100836 )
( 0.0210084 0.0210084 0.07563025 0.184874 0.394958 0.184874 0.07563025 0.0210084 0.0210084 )
( 0.0210084 0.0210084 0.07563025 0.184874 0.394958 0.184874 0.07563025 0.0210084 0.0210084 )
( 0.0210084 0.0210084 0.07563025 0.184874 0.394958 0.184874 0.07563025 0.0210084 0.0210084 ))
(( 0.1111111 0.1111111 0.1111111 0.1111111 0.1111111 0.1111111 0.1111111 0.1111111 0.1111111 )
( 0.1111111 0.1111111 0.1111111 0.1111111 0.1111111 0.1111111 0.1111111 0.1111111 0.1111111 )
( 0.1111111 0.1111111 0.1111111 0.1111111 0.1111111 0.1111111 0.1111111 0.1111111 0.1111111 )
( 0.1111111 0.1111111 0.1111111 0.1111111 0.1111111 0.1111111 0.1111111 0.1111111 0.1111111 )
( 0.1111111 0.1111111 0.1111111 0.1111111 0.1111111 0.1111111 0.1111111 0.1111111 0.1111111 )
( 0.1111111 0.1111111 0.1111111 0.1111111 0.1111111 0.1111111 0.1111111 0.1111111 0.1111111 )
( 0.1111111 0.1111111 0.1111111 0.1111111 0.1111111 0.1111111 0.1111111 0.1111111 0.1111111 )
( 0.1111111 0.1111111 0.1111111 0.1111111 0.1111111 0.1111111 0.1111111 0.1111111 0.1111111 )
( 0.1111111 0.1111111 0.1111111 0.1111111 0.1111111 0.1111111 0.1111111 0.1111111 0.1111111 )))
((( 0.1111112 0.1111112 0.1111112 0.1111101 0.1111112 0.1111112 0.1111112 0.1111112 0.1111112 )
( 0.0210084 0.0210084 0.07563025 0.184874 0.394958 0.184874 0.07563025 0.0210084 0.0210084 )
( 0.0210084 0.0210084 0.07563025 0.184874 0.394958 0.184874 0.07563025 0.0210084 0.0210084 )
( 0.0210084 0.0210084 0.07563025 0.184874 0.394958 0.184874 0.07563025 0.0210084 0.0210084 )
( 0.0210084 0.0210084 0.07563025 0.184874 0.394958 0.184874 0.07563025 0.0210084 0.0210084 )
( 0.0210084 0.0210084 0.07563025 0.184874 0.394958 0.184874 0.07563025 0.0210084 0.0210084 )
( 0.0210084 0.0210084 0.07563025 0.184874 0.394958 0.184874 0.07563025 0.0210084 0.0210084 )
( 0.0210084 0.0210084 0.07563025 0.184874 0.394958 0.184874 0.07563025 0.0210084 0.0210084 )
( 0.0210084 0.0210084 0.07563025 0.184874 0.394958 0.184874 0.07563025 0.0210084 0.0210084 ))
(( 0.1111111 0.1111111 0.1111111 0.1111111 0.1111111 0.1111111 0.1111111 0.1111111 0.1111111 )
( 0.1111111 0.1111111 0.1111111 0.1111111 0.1111111 0.1111111 0.1111111 0.1111111 0.1111111 )
( 0.1111111 0.1111111 0.1111111 0.1111111 0.1111111 0.1111111 0.1111111 0.1111111 0.1111111 )
( 0.1111112 0.1111112 0.1111112 0.1111112 0.1111112 0.1111101 0.1111112 0.1111112 0.1111112 )
( 0.1111111 0.1111111 0.1111111 0.1111111 0.1111111 0.1111111 0.1111111 0.1111111 0.1111111 )
( 0.1111111 0.1111111 0.1111111 0.1111111 0.1111111 0.1111111 0.1111111 0.1111111 0.1111111 )
( 0.1111111 0.1111111 0.1111111 0.1111111 0.1111111 0.1111111 0.1111111 0.1111111 0.1111111 )
( 0.1111111 0.1111111 0.1111111 0.1111111 0.1111111 0.1111111 0.1111111 0.1111111 0.1111111 )
( 0.1111111 0.1111111 0.1111111 0.1111111 0.1111111 0.1111111 0.1111111 0.1111111 0.1111111 ))));
}

